digraph Tree {
node [shape=box] ;
0 [label="Petal.Length <= 2.45\nentropy = 1.576\nsamples = 112\nvalue = [38, 42, 32]"] ;
1 [label="entropy = 0.0\nsamples = 38\nvalue = [38, 0, 0]"] ;
0 -> 1 [labeldistance=2.5, labelangle=45, headlabel="True"] ;
2 [label="Petal.Length <= 4.95\nentropy = 0.987\nsamples = 74\nvalue = [0, 42, 32]"] ;
0 -> 2 [labeldistance=2.5, labelangle=-45, headlabel="False"] ;
3 [label="Petal.Width <= 1.65\nentropy = 0.359\nsamples = 44\nvalue = [0, 41, 3]"] ;
2 -> 3 ;
4 [label="entropy = 0.0\nsamples = 40\nvalue = [0, 40, 0]"] ;
3 -> 4 ;
5 [label="entropy = 0.811\nsamples = 4\nvalue = [0, 1, 3]"] ;
3 -> 5 ;
6 [label="Petal.Width <= 1.7\nentropy = 0.211\nsamples = 30\nvalue = [0, 1, 29]"] ;
2 -> 6 ;
7 [label="entropy = 0.811\nsamples = 4\nvalue = [0, 1, 3]"] ;
6 -> 7 ;
8 [label="entropy = 0.0\nsamples = 26\nvalue = [0, 0, 26]"] ;
6 -> 8 ;
}